<?xml version="1.0"?>
<opencv_storage>
<cascade>
  <stageType>BOOST</stageType>
  <featureType>HAAR</featureType>
  <height>24</height>
  <width>24</width>
  <stageParams>
    <boostType>GAB</boostType>
    <minHitRate>9.9900001287460327e-01</minHitRate>
    <maxFalseAlarm>3.0000001192092896e-01</maxFalseAlarm>
    <weightTrimRate>9.4999999999999996e-01</weightTrimRate>
    <maxDepth>1</maxDepth>
    <maxWeakCount>100</maxWeakCount></stageParams>
  <featureParams>
    <maxCatCount>0</maxCatCount>
    <featSize>1</featSize>
    <mode>BASIC</mode></featureParams>
  <stageNum>9</stageNum>
  <stages>
    <!-- stage 0 -->
    <_>
      <maxWeakCount>2</maxWeakCount>
      <stageThreshold>-3.1823161244392395e-01</stageThreshold>
      <weakClassifiers>
        <_>
          <internalNodes>
            0 -1 34 3.9175599813461304e-02</internalNodes>
          <leafValues>
            -9.4789576530456543e-01 6.3157892227172852e-01</leafValues></_>
        <_>
          <internalNodes>
            0 -1 16 -4.0004327893257141e-02</internalNodes>
          <leafValues>
            -1. 6.2966418266296387e-01</leafValues></_></weakClassifiers></_>
    <!-- stage 1 -->
    <_>
      <maxWeakCount>2</maxWeakCount>
      <stageThreshold>-3.4913328289985657e-01</stageThreshold>
      <weakClassifiers>
        <_>
          <internalNodes>
            0 -1 9 -2.7685828506946564e-02</internalNodes>
          <leafValues>
            7.3750001192092896e-01 -9.7777777910232544e-01</leafValues></_>
        <_>
          <internalNodes>
            0 -1 37 5.7532817125320435e-02</internalNodes>
          <leafValues>
            -9.8302304744720459e-01 6.2864452600479126e-01</leafValues></_></weakClassifiers></_>
    <!-- stage 2 -->
    <_>
      <maxWeakCount>4</maxWeakCount>
      <stageThreshold>-1.0043556690216064e+00</stageThreshold>
      <weakClassifiers>
        <_>
          <internalNodes>
            0 -1 6 -1.4837814494967461e-02</internalNodes>
          <leafValues>
            5.1428574323654175e-01 -9.1287130117416382e-01</leafValues></_>
        <_>
          <internalNodes>
            0 -1 2 -6.0855347663164139e-02</internalNodes>
          <leafValues>
            3.8903662562370300e-01 -9.3356227874755859e-01</leafValues></_>
        <_>
          <internalNodes>
            0 -1 10 -4.0525360964238644e-03</internalNodes>
          <leafValues>
            5.6634116172790527e-01 -9.2939960956573486e-01</leafValues></_>
        <_>
          <internalNodes>
            0 -1 13 1.1412472464144230e-02</internalNodes>
          <leafValues>
            -9.7931182384490967e-01 4.4887864589691162e-01</leafValues></_></weakClassifiers></_>
    <!-- stage 3 -->
    <_>
      <maxWeakCount>4</maxWeakCount>
      <stageThreshold>-1.8815991878509521e+00</stageThreshold>
      <weakClassifiers>
        <_>
          <internalNodes>
            0 -1 15 -4.1710194200277328e-03</internalNodes>
          <leafValues>
            -8.6553031206130981e-01 6.8085104227066040e-01</leafValues></_>
        <_>
          <internalNodes>
            0 -1 19 -1.1884052946697921e-04</internalNodes>
          <leafValues>
            3.8705718517303467e-01 -8.7953013181686401e-01</leafValues></_>
        <_>
          <internalNodes>
            0 -1 31 2.3905020207166672e-02</internalNodes>
          <leafValues>
            -6.2299162149429321e-01 7.4092817306518555e-01</leafValues></_>
        <_>
          <internalNodes>
            0 -1 17 -9.7686290740966797e-02</internalNodes>
          <leafValues>
            -9.2854923009872437e-01 4.8645284771919250e-01</leafValues></_></weakClassifiers></_>
    <!-- stage 4 -->
    <_>
      <maxWeakCount>5</maxWeakCount>
      <stageThreshold>-1.5789275169372559e+00</stageThreshold>
      <weakClassifiers>
        <_>
          <internalNodes>
            0 -1 5 -9.3510560691356659e-03</internalNodes>
          <leafValues>
            8.0568723380565643e-02 -9.2332267761230469e-01</leafValues></_>
        <_>
          <internalNodes>
            0 -1 30 1.3365483842790127e-02</internalNodes>
          <leafValues>
            -7.6959443092346191e-01 3.8619798421859741e-01</leafValues></_>
        <_>
          <internalNodes>
            0 -1 29 -8.0553800216875970e-05</internalNodes>
          <leafValues>
            5.0224041938781738e-01 -7.4635154008865356e-01</leafValues></_>
        <_>
          <internalNodes>
            0 -1 3 -1.8705356633290648e-03</internalNodes>
          <leafValues>
            5.5922394990921021e-01 -6.2908363342285156e-01</leafValues></_>
        <_>
          <internalNodes>
            0 -1 22 -1.1559709906578064e-02</internalNodes>
          <leafValues>
            5.8836323022842407e-01 -6.7025911808013916e-01</leafValues></_></weakClassifiers></_>
    <!-- stage 5 -->
    <_>
      <maxWeakCount>6</maxWeakCount>
      <stageThreshold>-1.4962431192398071e+00</stageThreshold>
      <weakClassifiers>
        <_>
          <internalNodes>
            0 -1 18 -1.0515529662370682e-02</internalNodes>
          <leafValues>
            -8.4774434566497803e-01 6.0465115308761597e-01</leafValues></_>
        <_>
          <internalNodes>
            0 -1 39 9.5976963639259338e-03</internalNodes>
          <leafValues>
            -8.3891540765762329e-01 2.1001842617988586e-01</leafValues></_>
        <_>
          <internalNodes>
            0 -1 12 -9.4715759158134460e-02</internalNodes>
          <leafValues>
            -7.7529168128967285e-01 3.7446686625480652e-01</leafValues></_>
        <_>
          <internalNodes>
            0 -1 8 -6.3148094341158867e-04</internalNodes>
          <leafValues>
            3.3556905388832092e-01 -8.9602828025817871e-01</leafValues></_>
        <_>
          <internalNodes>
            0 -1 28 -7.5016287155449390e-03</internalNodes>
          <leafValues>
            3.8290166854858398e-01 -8.0359739065170288e-01</leafValues></_>
        <_>
          <internalNodes>
            0 -1 32 1.8811246380209923e-02</internalNodes>
          <leafValues>
            -9.5047849416732788e-01 3.2907634973526001e-01</leafValues></_></weakClassifiers></_>
    <!-- stage 6 -->
    <_>
      <maxWeakCount>6</maxWeakCount>
      <stageThreshold>-1.5104203224182129e+00</stageThreshold>
      <weakClassifiers>
        <_>
          <internalNodes>
            0 -1 24 -6.3002277165651321e-03</internalNodes>
          <leafValues>
            -8.1488204002380371e-01 1.</leafValues></_>
        <_>
          <internalNodes>
            0 -1 1 -1.5413899719715118e-01</internalNodes>
          <leafValues>
            5.7927411794662476e-01 -6.4964997768402100e-01</leafValues></_>
        <_>
          <internalNodes>
            0 -1 35 2.9215478571131825e-04</internalNodes>
          <leafValues>
            -7.0603072643280029e-01 4.7354778647422791e-01</leafValues></_>
        <_>
          <internalNodes>
            0 -1 25 -3.6759127397090197e-05</internalNodes>
          <leafValues>
            5.6751203536987305e-01 -5.5557030439376831e-01</leafValues></_>
        <_>
          <internalNodes>
            0 -1 27 -4.0797226130962372e-02</internalNodes>
          <leafValues>
            -4.8392221331596375e-01 7.1897828578948975e-01</leafValues></_>
        <_>
          <internalNodes>
            0 -1 38 -2.8702702838927507e-03</internalNodes>
          <leafValues>
            5.7516121864318848e-01 -6.0302591323852539e-01</leafValues></_></weakClassifiers></_>
    <!-- stage 7 -->
    <_>
      <maxWeakCount>7</maxWeakCount>
      <stageThreshold>-1.5751448869705200e+00</stageThreshold>
      <weakClassifiers>
        <_>
          <internalNodes>
            0 -1 23 1.5352012589573860e-02</internalNodes>
          <leafValues>
            -8.2423681020736694e-01 5.9420287609100342e-01</leafValues></_>
        <_>
          <internalNodes>
            0 -1 0 1.2709847651422024e-02</internalNodes>
          <leafValues>
            -6.4799004793167114e-01 4.6967709064483643e-01</leafValues></_>
        <_>
          <internalNodes>
            0 -1 36 5.3256307728588581e-03</internalNodes>
          <leafValues>
            -8.1425869464874268e-01 3.6336430907249451e-01</leafValues></_>
        <_>
          <internalNodes>
            0 -1 26 1.8881548894569278e-03</internalNodes>
          <leafValues>
            -5.6338310241699219e-01 5.2385544776916504e-01</leafValues></_>
        <_>
          <internalNodes>
            0 -1 21 -1.0051781311631203e-02</internalNodes>
          <leafValues>
            -7.9791355133056641e-01 3.6083069443702698e-01</leafValues></_>
        <_>
          <internalNodes>
            0 -1 4 -2.4702193331904709e-04</internalNodes>
          <leafValues>
            4.1310912370681763e-01 -7.3176085948944092e-01</leafValues></_>
        <_>
          <internalNodes>
            0 -1 7 3.4607807174324989e-03</internalNodes>
          <leafValues>
            -5.5961376428604126e-01 5.5841535329818726e-01</leafValues></_></weakClassifiers></_>
    <!-- stage 8 -->
    <_>
      <maxWeakCount>5</maxWeakCount>
      <stageThreshold>-1.4546996355056763e+00</stageThreshold>
      <weakClassifiers>
        <_>
          <internalNodes>
            0 -1 20 4.0164059028029442e-03</internalNodes>
          <leafValues>
            -8.9452737569808960e-01 3.3793103694915771e-01</leafValues></_>
        <_>
          <internalNodes>
            0 -1 33 1.9097056938335299e-03</internalNodes>
          <leafValues>
            -7.1416699886322021e-01 5.0994408130645752e-01</leafValues></_>
        <_>
          <internalNodes>
            0 -1 40 1.4034804189577699e-03</internalNodes>
          <leafValues>
            -7.9502159357070923e-01 3.9204779267311096e-01</leafValues></_>
        <_>
          <internalNodes>
            0 -1 14 3.1623686663806438e-03</internalNodes>
          <leafValues>
            -9.2604774236679077e-01 3.7530270218849182e-01</leafValues></_>
        <_>
          <internalNodes>
            0 -1 11 -5.6320945732295513e-03</internalNodes>
          <leafValues>
            6.4260572195053101e-01 -5.3229445219039917e-01</leafValues></_></weakClassifiers></_></stages>
  <features>
    <_>
      <rects>
        <_>
          0 2 21 2 -1.</_>
        <_>
          0 3 21 1 2.</_></rects>
      <tilted>0</tilted></_>
    <_>
      <rects>
        <_>
          0 7 4 15 -1.</_>
        <_>
          0 12 4 5 2.</_></rects>
      <tilted>0</tilted></_>
    <_>
      <rects>
        <_>
          0 8 8 14 -1.</_>
        <_>
          4 8 4 14 2.</_></rects>
      <tilted>0</tilted></_>
    <_>
      <rects>
        <_>
          0 11 2 10 -1.</_>
        <_>
          1 11 1 10 2.</_></rects>
      <tilted>0</tilted></_>
    <_>
      <rects>
        <_>
          2 8 2 6 -1.</_>
        <_>
          3 8 1 6 2.</_></rects>
      <tilted>0</tilted></_>
    <_>
      <rects>
        <_>
          2 9 19 2 -1.</_>
        <_>
          2 10 19 1 2.</_></rects>
      <tilted>0</tilted></_>
    <_>
      <rects>
        <_>
          2 14 8 6 -1.</_>
        <_>
          2 14 4 3 2.</_>
        <_>
          6 17 4 3 2.</_></rects>
      <tilted>0</tilted></_>
    <_>
      <rects>
        <_>
          2 15 14 2 -1.</_>
        <_>
          2 16 14 1 2.</_></rects>
      <tilted>0</tilted></_>
    <_>
      <rects>
        <_>
          3 0 5 2 -1.</_>
        <_>
          3 1 5 1 2.</_></rects>
      <tilted>0</tilted></_>
    <_>
      <rects>
        <_>
          3 8 19 6 -1.</_>
        <_>
          3 11 19 3 2.</_></rects>
      <tilted>0</tilted></_>
    <_>
      <rects>
        <_>
          4 0 15 2 -1.</_>
        <_>
          4 1 15 1 2.</_></rects>
      <tilted>0</tilted></_>
    <_>
      <rects>
        <_>
          5 12 4 12 -1.</_>
        <_>
          5 12 2 6 2.</_>
        <_>
          7 18 2 6 2.</_></rects>
      <tilted>0</tilted></_>
    <_>
      <rects>
        <_>
          5 13 14 6 -1.</_>
        <_>
          5 15 14 2 2.</_></rects>
      <tilted>0</tilted></_>
    <_>
      <rects>
        <_>
          5 20 14 4 -1.</_>
        <_>
          5 22 14 2 2.</_></rects>
      <tilted>0</tilted></_>
    <_>
      <rects>
        <_>
          6 1 7 10 -1.</_>
        <_>
          6 6 7 5 2.</_></rects>
      <tilted>0</tilted></_>
    <_>
      <rects>
        <_>
          6 20 12 1 -1.</_>
        <_>
          10 20 4 1 2.</_></rects>
      <tilted>0</tilted></_>
    <_>
      <rects>
        <_>
          7 1 9 3 -1.</_>
        <_>
          10 1 3 3 2.</_></rects>
      <tilted>0</tilted></_>
    <_>
      <rects>
        <_>
          7 1 9 9 -1.</_>
        <_>
          7 4 9 3 2.</_></rects>
      <tilted>0</tilted></_>
    <_>
      <rects>
        <_>
          7 18 9 3 -1.</_>
        <_>
          10 18 3 3 2.</_></rects>
      <tilted>0</tilted></_>
    <_>
      <rects>
        <_>
          8 6 3 2 -1.</_>
        <_>
          8 7 3 1 2.</_></rects>
      <tilted>0</tilted></_>
    <_>
      <rects>
        <_>
          8 15 4 6 -1.</_>
        <_>
          8 15 2 3 2.</_>
        <_>
          10 18 2 3 2.</_></rects>
      <tilted>0</tilted></_>
    <_>
      <rects>
        <_>
          9 2 9 1 -1.</_>
        <_>
          12 2 3 1 2.</_></rects>
      <tilted>0</tilted></_>
    <_>
      <rects>
        <_>
          9 6 7 6 -1.</_>
        <_>
          9 9 7 3 2.</_></rects>
      <tilted>0</tilted></_>
    <_>
      <rects>
        <_>
          9 13 4 8 -1.</_>
        <_>
          9 13 2 4 2.</_>
        <_>
          11 17 2 4 2.</_></rects>
      <tilted>0</tilted></_>
    <_>
      <rects>
        <_>
          10 2 5 3 -1.</_>
        <_>
          10 3 5 1 2.</_></rects>
      <tilted>0</tilted></_>
    <_>
      <rects>
        <_>
          10 12 2 2 -1.</_>
        <_>
          10 13 2 1 2.</_></rects>
      <tilted>0</tilted></_>
    <_>
      <rects>
        <_>
          10 18 9 2 -1.</_>
        <_>
          10 19 9 1 2.</_></rects>
      <tilted>0</tilted></_>
    <_>
      <rects>
        <_>
          11 0 5 12 -1.</_>
        <_>
          11 4 5 4 2.</_></rects>
      <tilted>0</tilted></_>
    <_>
      <rects>
        <_>
          11 8 9 10 -1.</_>
        <_>
          11 13 9 5 2.</_></rects>
      <tilted>0</tilted></_>
    <_>
      <rects>
        <_>
          14 10 1 2 -1.</_>
        <_>
          14 11 1 1 2.</_></rects>
      <tilted>0</tilted></_>
    <_>
      <rects>
        <_>
          14 13 8 6 -1.</_>
        <_>
          14 13 4 3 2.</_>
        <_>
          18 16 4 3 2.</_></rects>
      <tilted>0</tilted></_>
    <_>
      <rects>
        <_>
          14 13 8 8 -1.</_>
        <_>
          14 13 4 4 2.</_>
        <_>
          18 17 4 4 2.</_></rects>
      <tilted>0</tilted></_>
    <_>
      <rects>
        <_>
          14 18 10 3 -1.</_>
        <_>
          19 18 5 3 2.</_></rects>
      <tilted>0</tilted></_>
    <_>
      <rects>
        <_>
          15 16 6 2 -1.</_>
        <_>
          15 16 3 1 2.</_>
        <_>
          18 17 3 1 2.</_></rects>
      <tilted>0</tilted></_>
    <_>
      <rects>
        <_>
          15 17 8 5 -1.</_>
        <_>
          19 17 4 5 2.</_></rects>
      <tilted>0</tilted></_>
    <_>
      <rects>
        <_>
          15 22 1 2 -1.</_>
        <_>
          15 23 1 1 2.</_></rects>
      <tilted>0</tilted></_>
    <_>
      <rects>
        <_>
          16 1 8 4 -1.</_>
        <_>
          20 1 4 4 2.</_></rects>
      <tilted>0</tilted></_>
    <_>
      <rects>
        <_>
          16 9 8 14 -1.</_>
        <_>
          20 9 4 14 2.</_></rects>
      <tilted>0</tilted></_>
    <_>
      <rects>
        <_>
          20 9 2 6 -1.</_>
        <_>
          20 12 2 3 2.</_></rects>
      <tilted>0</tilted></_>
    <_>
      <rects>
        <_>
          20 11 4 13 -1.</_>
        <_>
          22 11 2 13 2.</_></rects>
      <tilted>0</tilted></_>
    <_>
      <rects>
        <_>
          21 8 2 13 -1.</_>
        <_>
          22 8 1 13 2.</_></rects>
      <tilted>0</tilted></_></features></cascade>
</opencv_storage>
