<?xml version="1.0"?>
<opencv_storage>
<stage7>
  <maxWeakCount>7</maxWeakCount>
  <stageThreshold>-1.5751448869705200e+00</stageThreshold>
  <weakClassifiers>
    <_>
      <internalNodes>
        0 -1 105131 1.5352012589573860e-02</internalNodes>
      <leafValues>
        -8.2423681020736694e-01 5.9420287609100342e-01</leafValues></_>
    <_>
      <internalNodes>
        0 -1 3060 1.2709847651422024e-02</internalNodes>
      <leafValues>
        -6.4799004793167114e-01 4.6967709064483643e-01</leafValues></_>
    <_>
      <internalNodes>
        0 -1 144602 5.3256307728588581e-03</internalNodes>
      <leafValues>
        -8.1425869464874268e-01 3.6336430907249451e-01</leafValues></_>
    <_>
      <internalNodes>
        0 -1 114049 1.8881548894569278e-03</internalNodes>
      <leafValues>
        -5.6338310241699219e-01 5.2385544776916504e-01</leafValues></_>
    <_>
      <internalNodes>
        0 -1 100095 -1.0051781311631203e-02</internalNodes>
      <leafValues>
        -7.9791355133056641e-01 3.6083069443702698e-01</leafValues></_>
    <_>
      <internalNodes>
        0 -1 32565 -2.4702193331904709e-04</internalNodes>
      <leafValues>
        4.1310912370681763e-01 -7.3176085948944092e-01</leafValues></_>
    <_>
      <internalNodes>
        0 -1 36543 3.4607807174324989e-03</internalNodes>
      <leafValues>
        -5.5961376428604126e-01 5.5841535329818726e-01</leafValues></_></weakClassifiers></stage7>
</opencv_storage>
