<?xml version="1.0"?>
<opencv_storage>
<stage8>
  <maxWeakCount>5</maxWeakCount>
  <stageThreshold>-1.4546996355056763e+00</stageThreshold>
  <weakClassifiers>
    <_>
      <internalNodes>
        0 -1 97438 4.0164059028029442e-03</internalNodes>
      <leafValues>
        -8.9452737569808960e-01 3.3793103694915771e-01</leafValues></_>
    <_>
      <internalNodes>
        0 -1 143551 1.9097056938335299e-03</internalNodes>
      <leafValues>
        -7.1416699886322021e-01 5.0994408130645752e-01</leafValues></_>
    <_>
      <internalNodes>
        0 -1 160581 1.4034804189577699e-03</internalNodes>
      <leafValues>
        -7.9502159357070923e-01 3.9204779267311096e-01</leafValues></_>
    <_>
      <internalNodes>
        0 -1 72011 3.1623686663806438e-03</internalNodes>
      <leafValues>
        -9.2604774236679077e-01 3.7530270218849182e-01</leafValues></_>
    <_>
      <internalNodes>
        0 -1 68187 -5.6320945732295513e-03</internalNodes>
      <leafValues>
        6.4260572195053101e-01 -5.3229445219039917e-01</leafValues></_></weakClassifiers></stage8>
</opencv_storage>
